digraph Tree {
node [shape=box, style="filled, rounded", color="black", fontname="helvetica"] ;
edge [fontname="helvetica"] ;
0 [label="petal length (cm) <= 2.45\ngini = 0.66\nsamples = 92\nvalue = [53, 58, 39]\nclass = versicolor", fillcolor="#f5fef9"] ;
1 [label="gini = 0.0\nsamples = 32\nvalue = [53, 0, 0]\nclass = setosa", fillcolor="#e58139"] ;
0 -> 1 [labeldistance=2.5, labelangle=45, headlabel="True"] ;
2 [label="petal length (cm) <= 4.75\ngini = 0.48\nsamples = 60\nvalue = [0, 58, 39]\nclass = versicolor", fillcolor="#bef6d6"] ;
0 -> 2 [labeldistance=2.5, labelangle=-45, headlabel="False"] ;
3 [label="petal width (cm) <= 1.65\ngini = 0.07\nsamples = 30\nvalue = [0, 51, 2]\nclass = versicolor", fillcolor="#41e686"] ;
2 -> 3 ;
4 [label="gini = 0.0\nsamples = 29\nvalue = [0, 51, 0]\nclass = versicolor", fillcolor="#39e581"] ;
3 -> 4 ;
5 [label="gini = 0.0\nsamples = 1\nvalue = [0, 0, 2]\nclass = virginica", fillcolor="#8139e5"] ;
3 -> 5 ;
6 [label="petal length (cm) <= 5.15\ngini = 0.27\nsamples = 30\nvalue = [0, 7, 37]\nclass = virginica", fillcolor="#995eea"] ;
2 -> 6 ;
7 [label="petal width (cm) <= 1.7\ngini = 0.45\nsamples = 13\nvalue = [0, 7, 13]\nclass = virginica", fillcolor="#c5a4f3"] ;
6 -> 7 ;
8 [label="sepal width (cm) <= 2.35\ngini = 0.48\nsamples = 5\nvalue = [0, 6, 4]\nclass = versicolor", fillcolor="#bdf6d5"] ;
7 -> 8 ;
9 [label="gini = 0.0\nsamples = 1\nvalue = [0, 0, 3]\nclass = virginica", fillcolor="#8139e5"] ;
8 -> 9 ;
10 [label="sepal length (cm) <= 6.15\ngini = 0.24\nsamples = 4\nvalue = [0, 6, 1]\nclass = versicolor", fillcolor="#5ae996"] ;
8 -> 10 ;
11 [label="gini = 0.0\nsamples = 1\nvalue = [0, 3, 0]\nclass = versicolor", fillcolor="#39e581"] ;
10 -> 11 ;
12 [label="petal length (cm) <= 5.0\ngini = 0.38\nsamples = 3\nvalue = [0, 3, 1]\nclass = versicolor", fillcolor="#7beeab"] ;
10 -> 12 ;
13 [label="gini = 0.0\nsamples = 2\nvalue = [0, 3, 0]\nclass = versicolor", fillcolor="#39e581"] ;
12 -> 13 ;
14 [label="gini = 0.0\nsamples = 1\nvalue = [0, 0, 1]\nclass = virginica", fillcolor="#8139e5"] ;
12 -> 14 ;
15 [label="sepal width (cm) <= 3.1\ngini = 0.18\nsamples = 8\nvalue = [0, 1, 9]\nclass = virginica", fillcolor="#8f4fe8"] ;
7 -> 15 ;
16 [label="gini = 0.0\nsamples = 7\nvalue = [0, 0, 9]\nclass = virginica", fillcolor="#8139e5"] ;
15 -> 16 ;
17 [label="gini = 0.0\nsamples = 1\nvalue = [0, 1, 0]\nclass = versicolor", fillcolor="#39e581"] ;
15 -> 17 ;
18 [label="gini = 0.0\nsamples = 17\nvalue = [0, 0, 24]\nclass = virginica", fillcolor="#8139e5"] ;
6 -> 18 ;
}